{
  "network": {
    "layers": [
      {
        "weights": [
          [
            -0.5060086244030148,
            0.5080762019570751,
            -0.3337234702721635,
            -0.49386305847943995,
            -0.1315716927704163
          ],
          [
            -0.7686980438017137,
            -2.517239149909602,
            0.014220730677829377,
            0.9154975101832766,
            -0.018806366140259323
          ],
          [
            0.2715119145563152,
            -0.17839184137145994,
            -0.08364704738527613,
            -0.06221480485739187,
            0.3009974287947999
          ],
          [
            -0.8810144817703244,
            -0.16298653839434235,
            0.09081035117223886,
            0.7770697159139207,
            -0.05102575352947117
          ],
          [
            -0.2595511642609786,
            2.9581655132405316,
            0.2550805110691765,
            -0.30663062426839405,
            0.011743274369492292
          ],
          [
            -2.1584543471486333,
            -0.43476753067895746,
            0.007307193519897342,
            -0.01290880374444639,
            0.004833793174133213
          ],
          [
            1.5937472209895425,
            -0.9090701286936386,
            0.04698924442641977,
            -0.3503519410283661,
            -0.013415446633039145
          ],
          [
            0.4322595959350206,
            0.0625968032702335,
            -0.40255667190267996,
            -0.3006805897001029,
            -0.02099497428753745
          ],
          [
            0.15795697293636374,
            0.7233163789938385,
            -0.18037228795616855,
            -0.31772851517025485,
            -0.04418055360387839
          ],
          [
            -0.6405871784321886,
            0.5390884549188453,
            -1.0228539407595523,
            0.6275643101674233,
            0.06559256366637121
          ],
          [
            -0.09758390142176436,
            0.026218831381689435,
            0.4834759386600204,
            0.12295888832361976,
            -0.24769487648374913
          ],
          [
            0.6619784653763282,
            -0.3824863803513459,
            0.502550886523042,
            0.1311825171505045,
            -0.1108764276975029
          ],
          [
            0.2524913803471332,
            0.6966083368480559,
            0.9463351966593256,
            -0.8845394112848635,
            0.06876468928126554
          ],
          [
            1.546039130917587,
            1.2719570618671407,
            -0.46245665194188534,
            -0.12641141698731373,
            0.017284416369343733
          ],
          [
            0.7099953761983518,
            0.5634235562779678,
            0.7569611028708536,
            0.4200754295344547,
            -0.001395685943124639
          ],
          [
            1.5035035133051076,
            -3.1111203647679795,
            0.09222105474171141,
            0.43526600308498903,
            0.014524357920543867
          ],
          [
            -2.0664169917492368,
            -1.959073876230772,
            0.007112626440062123,
            -0.0003041163291503901,
            -0.002500067097760681
          ],
          [
            -0.12660287684462496,
            -0.2164896922812513,
            0.16717551586473742,
            0.19708616588011338,
            -0.3122724180918151
          ],
          [
            1.8184177209529218,
            -0.40607872451135923,
            0.1520471617168071,
            0.8091706112301967,
            -0.04927987464069282
          ],
          [
            -0.8714053166361859,
            2.911455087393205,
            -0.31580401969079375,
            0.6536085672810894,
            -0.002406195386730606
          ],
          [
            0.14238426511407618,
            -0.8023970570866343,
            0.3522200248281172,
            -1.5181909901355888,
            0.009284069690080807
          ],
          [
            -0.12269813537503824,
            -0.1261615234704019,
            0.2776501547416046,
            -0.493733707680238,
            -0.17050878310266096
          ],
          [
            -0.36999220900329655,
            0.46420230883186986,
            -0.19655906813133317,
            0.189430841233361,
            -0.2544081727156639
          ],
          [
            1.037794931359395,
            -1.81307939722264,
            -0.00875751630369938,
            0.03803184088439706,
            0.0033158247877016996
          ],
          [
            0.6510066716621722,
            0.016292091602620188,
            -0.018632406366754384,
            1.1511679950820268,
            -0.012013204590410184
          ],
          [
            -1.0461309660306908,
            1.984922999504566,
            -0.028650084675326332,
            -0.21641261854486618,
            0.0011519625880228106
          ],
          [
            0.7791400504609616,
            -1.0442602985516303,
            0.39454596100031064,
            -0.6460304378515895,
            0.021850607590558933
          ],
          [
            -0.5059445708863848,
            0.8369256455200467,
            0.5510299640641443,
            0.0972083607655573,
            0.0850263312159869
          ],
          [
            -0.6866653041949053,
            -0.14552624723259516,
            0.02241306523260334,
            -0.5837157466391975,
            0.004502252606498556
          ],
          [
            0.37832757543677026,
            0.14246934066387448,
            -0.4587032928176442,
            -0.2753384411337437,
            0.1223923545311807
          ],
          [
            0.5028434404342964,
            -0.24381088749530663,
            0.8764489997145922,
            -0.05686694098974624,
            0.06677123602161225
          ],
          [
            -0.17438763316845984,
            -0.6277342181511484,
            0.4863681134942959,
            1.084521549379477,
            0.018520626107250467
          ]
        ],
        "biases": [
          -0.44073545425964933,
          -0.4465908005576092,
          0.01393456545415772,
          0.09055095636406935,
          0.07897403810306028,
          0.7206485527011859,
          -0.006450468105518485,
          -0.07387473522853936,
          0.07007770629357406,
          -0.844822905961893,
          -0.15425893803933952,
          -0.12850951367268318,
          -0.4703327089080693,
          0.07469010370130963,
          0.023807895797497453,
          -1.5533236370653163,
          0.24364812931937027,
          -0.05589795596148801,
          -0.018638296923580065,
          0.5666221454385615,
          0.09889649200480584,
          -0.17643226205407503,
          -0.10028521500336504,
          0.6508861330392125,
          -0.03438657394259328,
          -0.10184120029104074,
          -0.25087277080367915,
          -0.33305193375571346,
          -0.10727693438416715,
          -0.36321888693026455,
          -0.24236325868809785,
          -0.5731794124553217
        ]
      },
      {
        "weights": [
          [
            0.19337298938928021,
            -0.03266488955093982,
            -0.006937124889310959,
            0.8258355047790678,
            0.1874801984195633,
            0.49945943837882706,
            0.6571647558012208,
            0.3226351537427465,
            0.042414217392802434,
            -0.9669719295576897,
            -0.3156135402865701,
            0.19957576528592974,
            0.6240409812062045,
            0.47850969545717126,
            0.4281067907494827,
            -0.32223750390312167,
            -0.683090473366331,
            0.03137733003992784,
            0.23226389932003821,
            0.923730618575563,
            0.8760421843439641,
            0.03829026281954664,
            -0.07580163061389314,
            -0.5373957039479111,
            -1.6669293579466573,
            -0.4715951380386703,
            -1.3154331633806602,
            0.16598843922190987,
            0.19709715285861445,
            0.7300279437674514,
            0.4160770877447362,
            -0.028590311716572975
          ],
          [
            -1.138444666861258,
            1.960837529764147,
            -0.1053704262091868,
            -0.6371620467774526,
            -0.05773942307249024,
            0.421490632389182,
            -0.9955214595109704,
            0.06200178762996813,
            1.210780273415975,
            0.05329234355845117,
            -0.0029882087833636222,
            0.30724000442539817,
            -0.49331694712138446,
            1.2921369732635768,
            0.3817823502675582,
            -0.14485650055030574,
            0.4707718403407904,
            -0.1608042469966397,
            -1.413963664224401,
            0.12500755418861717,
            0.4561605234979465,
            -0.5907715272370735,
            -0.22946585996789304,
            -0.44834388546207404,
            -0.2974171171444654,
            -0.4885101791354228,
            0.394157459602286,
            0.288321037201346,
            -0.16492466740341108,
            0.37076694948100913,
            -0.14670221397315533,
            -0.3374912574592427
          ],
          [
            0.17695182817666322,
            -0.25967004392306275,
            -0.0601172804253159,
            0.3569449041672945,
            0.30933511041935735,
            0.40803303516361544,
            1.2354046114543027,
            -0.2080741055235861,
            -0.3949733423501196,
            -0.26871537597863066,
            0.26012136318020757,
            -0.45573080933533006,
            0.396645136003997,
            -1.3028691725144304,
            0.3903410556268454,
            -3.435861735559834,
            -0.7285421237140393,
            -0.22148749730041215,
            -0.36630602006918883,
            0.5744904006313045,
            0.34633013779467525,
            -0.23670957674474716,
            -0.12256681609424344,
            1.0019173551340699,
            -0.07137741945434614,
            0.7539920089691254,
            0.2129739436745418,
            0.025556676134045386,
            -0.5390849368666341,
            0.39560034557607804,
            -0.6688922796399459,
            0.7176004895196428
          ],
          [
            0.439035198940802,
            -0.7615691307296583,
            -0.1319651426930246,
            0.7670354756070079,
            -0.327264017076301,
            0.15000927864907182,
            -0.5240527154308374,
            0.3084747177959581,
            -0.00332003582899481,
            -2.596314614912529,
            0.32204770708115077,
            -0.7086782963308913,
            1.388331175193063,
            0.07719597284103373,
            -0.8695951934220129,
            1.9330744569285676,
            -0.33474956526070015,
            0.15381776225716917,
            -0.08854933039662657,
            0.18065673637475585,
            0.7858630138392033,
            -0.49418652046057115,
            0.6819419828413364,
            -0.357421813370727,
            0.0885319318941075,
            -0.30725074150523524,
            0.6277782484907054,
            -0.7617520650566271,
            0.4664778421550559,
            0.8133897666477723,
            1.215706227376989,
            -1.2597689956149007
          ],
          [
            -0.38036926054751297,
            1.15631247066099,
            -0.09146170105013086,
            -0.9606832204788057,
            0.6224255877381939,
            -1.457085296358285,
            -1.722914228533211,
            -0.7113359339428016,
            0.11479432302263903,
            -0.0024358978803222537,
            -0.19267223812413167,
            0.6087302791270712,
            -0.5451989169733389,
            -0.004010593568188394,
            -0.24764465239496405,
            -3.241652641892288,
            -0.283321388814362,
            0.09132756971234342,
            -1.0336639872740807,
            0.5827660934351543,
            0.30299491942275164,
            -0.10653867774046795,
            -0.03720654788471601,
            2.2518897794534265,
            -0.045686939970954125,
            0.1412867008957624,
            -0.0514523954950186,
            -0.3157679124228231,
            -0.43106337743792134,
            -0.5224043431750043,
            0.5179290208235451,
            -0.502587589574572
          ],
          [
            0.12619246651109647,
            0.040946225850094393,
            -0.5925352659050349,
            1.061183059807713,
            -0.12871366743192306,
            -0.3253404149371167,
            1.178497542903619,
            -0.75597043161857,
            0.04051787595019871,
            -0.6946753131612122,
            0.2845005508330663,
            -0.2672459155414689,
            0.3499107083278815,
            -0.11983211358582506,
            -0.41690756620191766,
            -2.032413801467371,
            -0.0015264645567049503,
            0.5090555165701279,
            -1.6118973411207675,
            0.44895553890585665,
            -0.8712926425325082,
            0.6615160654285549,
            -0.44116649711620515,
            0.9507926945362426,
            0.0013604090532249873,
            0.7537745087923042,
            0.16637076210890572,
            0.8321807682976202,
            0.47438348027247623,
            -0.16403482597586963,
            -1.0213783486114711,
            0.1626125101574183
          ],
          [
            0.8707700664458617,
            2.2128483451583927,
            0.13205061908485038,
            -1.0972029513396735,
            -1.0480132606474069,
            -0.829998863507226,
            0.7795864392094679,
            0.1682180100001564,
            0.14396746301795477,
            -1.063978973282392,
            0.06558284297907102,
            0.4499428155382618,
            0.5127171980872096,
            0.3142747777788291,
            0.2149939978435066,
            -1.8299281854238933,
            -38.1559278069796,
            -0.2154446223981735,
            -0.557525720622884,
            1.085098166682421,
            0.8284523755662326,
            0.2320373906499329,
            0.04405057044060355,
            0.15883622086079488,
            -0.48220629498201845,
            -4.226080909592779,
            -0.9956924037589405,
            -0.0635345532398579,
            2.4834386350454607,
            0.33834468505271675,
            0.21990387531560704,
            0.5912513775462285
          ],
          [
            0.23024709721369113,
            -0.6302447726267653,
            -0.11555377054819015,
            0.4574127668022099,
            0.7424460875337243,
            -0.9080432592820952,
            -0.7151614602875749,
            -0.49824620483040666,
            0.20718055745699454,
            -0.659239103678682,
            -0.22214122571292202,
            -0.07636940417056341,
            0.25725645415763876,
            0.07416006688533346,
            0.46693511682629874,
            1.4952892623489755,
            0.040286139098062945,
            0.40749223248068606,
            -0.4557096001606458,
            1.186042296370356,
            -0.23996106149007276,
            0.13576010945008604,
            -0.47909421338459623,
            0.6858721922370891,
            -0.7409789082156183,
            0.9446826847250767,
            0.4369731540452326,
            0.3180644781828344,
            0.004483940135331042,
            -0.27001296713938966,
            -0.36424124860948986,
            0.8393270899002113
          ],
          [
            0.4876218915885827,
            -0.5072495230415076,
            1.5000511970395474,
            -0.13339159672508508,
            -0.4090772258766283,
            -0.6246768214002799,
            0.0434417047754332,
            -0.5584133034990736,
            -0.36329704174084626,
            0.09718706361324356,
            0.3822422168368726,
            0.2416120777184546,
            0.720883402262038,
            0.0180081019460101,
            1.2567586115727716,
            -0.9023806056134547,
            1.0524503354598969,
            -0.675495862385559,
            0.6158656937764477,
            0.349320138430426,
            0.8131033176155792,
            0.4386846823291203,
            0.24205652206591075,
            0.48707469055914615,
            0.5496162728462564,
            -0.31757104867987435,
            0.30597940101289284,
            -0.544787675963599,
            0.7128820231934613,
            0.013394583172274698,
            0.19494237465623887,
            -1.0567716972554264
          ],
          [
            -0.48054228607877475,
            -0.24474984342563058,
            -0.08617841441666764,
            -0.0547275815488649,
            0.3621200010210866,
            0.13121978076193114,
            -0.2904067667010902,
            1.2133448211097275,
            0.23989232358896287,
            0.7415582459162506,
            -0.05783026758425459,
            -0.24626329408984365,
            1.1193649653179507,
            0.06607118726960114,
            -0.3016600004200331,
            -1.0612644213207394,
            0.4973893547550467,
            0.03655676117581888,
            0.4144611627203937,
            -0.9283751686445697,
            0.37054337951437744,
            0.4703410782528924,
            0.330009701426128,
            0.006621116071064886,
            0.7294388772629434,
            -0.4825687990807673,
            0.16207197137501972,
            0.5703332645787584,
            -0.4240973315039294,
            1.224085320113932,
            0.5365518606710392,
            -0.1474498645781399
          ],
          [
            -0.9244099995545135,
            0.5199831600104684,
            -0.04899650534252209,
            -0.09123741814816816,
            -17.67523728558191,
            0.9369097684440213,
            0.4291451309850448,
            -0.3823362415600085,
            -0.9240562359549479,
            1.9553389841841449,
            -0.5074378857784873,
            0.6726949242393017,
            1.346174268474585,
            -0.3244888176986855,
            0.143669562188003,
            0.5414852173442828,
            -0.18665118949610107,
            0.20657782631869473,
            -0.16284327551855482,
            -1.4503376879912526,
            0.1654346831343213,
            -0.009812942556156421,
            0.31156788897200366,
            0.4595195348594219,
            -0.19340206571419077,
            -0.05377967251758334,
            0.4362024138786046,
            -1.0962876528099017,
            -0.139684882763825,
            0.1511972905294588,
            0.21824946785906613,
            0.2556608886920476
          ],
          [
            0.010938263723065032,
            -0.7876765742671195,
            -0.2827879254900946,
            -0.03535294162424344,
            0.4813782636036845,
            0.2494577113012536,
            0.5193638276909,
            0.25606651393968044,
            -1.2775958901079556,
            -0.05374349887459288,
            -0.8175498830982734,
            0.34020272444150845,
            0.712930237556695,
            -0.011163147395486678,
            -1.3702037503666973,
            2.3324673653471932,
            0.3896175947546272,
            -0.12136883370205818,
            -0.4690067826853805,
            0.38924575171153175,
            0.27320473913115784,
            -0.4122435679395362,
            -0.8782051218645278,
            -0.3457333743224656,
            0.041714439097666735,
            -0.5236469683093171,
            -0.24341434199186981,
            -0.18855406926463314,
            -0.723421024363875,
            0.1501966050090824,
            -0.7671916900410067,
            0.46161870397476135
          ],
          [
            0.033959231592243906,
            0.0994279764696151,
            -0.16683264937972717,
            0.627570280230498,
            0.04553217299652583,
            -7.394953180612938,
            -0.2617743883688086,
            0.21493232292686404,
            0.030400621206842518,
            -1.5895327523415042,
            0.03598610562901745,
            0.5502956480270333,
            0.2850859840461887,
            0.5218370030794793,
            -0.31279619369942535,
            -12.729133122733886,
            -0.2224216906280227,
            0.6365456289660353,
            -1.3692837477813948,
            0.34618452229320185,
            0.32129763493207303,
            -0.02558396033440061,
            0.6260470388196474,
            0.699676011322969,
            0.6648994976846476,
            -1.2668417394724165,
            0.6167686070009523,
            -0.3993570958857313,
            -3.582147521916517,
            -0.09660905367800705,
            0.5570267008870914,
            1.8824218564837574
          ],
          [
            0.3845139586041576,
            -0.9244863998862903,
            -0.12976148445268781,
            -0.8686438869293626,
            0.49509222287115273,
            0.24805572399679623,
            -0.2760746854926093,
            0.42412156186999594,
            0.5692107051276503,
            0.06251334924641648,
            1.7530995182615066,
            0.5914383388935796,
            -0.2838607742694847,
            -0.06048344491603095,
            -0.42678599569661435,
            0.7326519863611396,
            -0.16087661958343508,
            1.8475656417134723,
            -0.2374206301287061,
            -0.06495526010554717,
            -1.09261650764688,
            -0.5566527469057407,
            -0.6036262454230037,
            -0.0064039250433307856,
            -0.20596037663070416,
            0.5739944864849867,
            0.9456137990825428,
            -1.7661107081471699,
            -0.34404453696679677,
            -0.7588858399895231,
            -1.185574040067931,
            0.9011243903281302
          ],
          [
            0.4670074429084137,
            -4.176536258846239,
            0.23093901007680206,
            0.39162972618867237,
            -0.1345066015032878,
            -1.9556396181382045,
            -0.5858449954119391,
            -0.3072122458693926,
            0.5577915917721568,
            0.13276216276630337,
            0.4574746866061747,
            0.6378393385333613,
            0.5956797984089198,
            0.9755676803386365,
            0.9820576967355396,
            -4.915090390318246,
            -0.04750097312013526,
            -0.44186326110674523,
            1.0483316814970074,
            -0.012393462311090583,
            -0.0719179144660032,
            -0.5305064382614663,
            -0.0059795190776482975,
            -0.051774959168639875,
            0.4153777976497135,
            -0.05000928763234879,
            -0.9179353246593691,
            -0.23084486220804692,
            0.4984202157101338,
            0.18125442185187998,
            -0.14670623776746722,
            0.42382451427110535
          ],
          [
            -0.3933593170224299,
            0.5346345717527377,
            -0.059968309430935354,
            0.21408721530867714,
            0.3454244062997993,
            0.79210199442566,
            0.6097278009717779,
            0.6995468866249734,
            0.8191880776156707,
            0.25844443780725435,
            -0.22405314071569327,
            -0.5395815931526445,
            0.08924691446376283,
            0.009553081128109606,
            0.15271530602073105,
            0.07738710247171263,
            -3.6586899675491127,
            0.19851459594222715,
            -0.6969084212164518,
            0.48106277483119547,
            0.05161135505768126,
            0.8044916223211214,
            0.26395761017397046,
            0.9429386592150689,
            -0.2862310290892288,
            -0.5735718545261606,
            0.564221299707986,
            0.11224223026432467,
            1.0079741947362493,
            0.6027117119063786,
            -0.565832872680167,
            0.39520069470249974
          ]
        ],
        "biases": [
          0.35725059931509145,
          -0.029554463362436056,
          -0.007530788721594137,
          0.11779602795791252,
          0.043808119743195345,
          0.2601195796828261,
          0.7478486525116467,
          -0.10516962885951711,
          0.3904291242220853,
          0.30182711763009024,
          -0.8527442681882789,
          0.3010659329419966,
          -0.42900136951643036,
          -0.4910289438545489,
          0.6478249597785725,
          0.24469959472435632
        ]
      },
      {
        "weights": [
          [
            -0.42614410842753747,
            0.468476353860461,
            -0.42814189988646595,
            0.27073437149257606,
            -0.7294148761265463,
            -0.17247180880837196,
            1.2524483914396756,
            0.7560751910950114,
            0.26078379655466016,
            0.154275659908796,
            -0.6327789955715685,
            0.2293066280312124,
            -0.5308682975761236,
            -0.1406597921015421,
            -0.6030587559155771,
            -0.3237156418354898
          ]
        ],
        "biases": [
          -0.025786501137297982
        ]
      }
    ]
  },
  "normalization": {
    "temp_mean": 8.501793288499718,
    "temp_std": 8.953217268177625
  },
  "hourly_noise_std": [
    3.282556989093666,
    3.275580709748233,
    3.2928719281056726,
    3.255571165598989,
    3.2117295216623827,
    3.1545885168437184,
    3.108381610066968,
    3.319867117355583,
    3.6279343335243732,
    4.003143519391725,
    4.265830729572544,
    4.235680685680547,
    4.2645728081883485,
    4.254534758829555,
    4.009800579029866,
    3.7885208081207975,
    3.557561600099452,
    3.322905135815745,
    3.2102356442015183,
    3.1994018366682444,
    3.2317985302870276,
    3.2180468858334232,
    3.2295658663250433,
    3.275999203468554
  ]
}