{
  "network": {
    "layers": [
      {
        "weights": [
          [
            0.20640302820965087,
            0.06568255330201862,
            0.7697815276800536,
            -0.310717821282187,
            0.07786063049302916
          ],
          [
            -0.7159215339465264,
            0.30688437212324676,
            -0.5444218743547415,
            0.06892594313837247,
            -1.0886075886143751
          ],
          [
            -0.28090239758294594,
            -0.5005323970094776,
            1.207403783655091,
            -0.6973178655166814,
            -0.24272499239670262
          ],
          [
            -0.6571798165746351,
            0.8814308603818718,
            0.6407164327182207,
            0.16141268060307104,
            1.0140602182133795
          ],
          [
            -0.4467359047737386,
            -0.44168356549698495,
            -0.7152270952649582,
            -0.4008122817127932,
            -0.6729176405624449
          ],
          [
            -0.5247973870399669,
            0.15807747719808685,
            0.13420379666535445,
            0.7449716497597605,
            1.4108166925525494
          ],
          [
            -0.4001791952000232,
            -1.5865936022897749,
            -0.27550827463613276,
            0.25815016618648856,
            0.1333691843428793
          ],
          [
            0.06827289770193053,
            0.385090582342212,
            -0.09982861630635767,
            -0.4102291877893548,
            -0.5913260264739704
          ],
          [
            -0.7130939512924226,
            -0.7730813158054954,
            -0.024504116200409102,
            -1.7761527498803278,
            0.49981942359887355
          ],
          [
            -0.2980652049378417,
            -0.7708308811439668,
            -0.8782472784854822,
            -0.4785211028006022,
            0.8836936311930453
          ],
          [
            -0.3760694473963018,
            0.9300505823186034,
            1.4102914102055562,
            -0.884076982394419,
            -0.501048084914633
          ],
          [
            0.03065757311955404,
            -1.6203084520972006,
            -0.3099365717055905,
            -0.7987567023712954,
            -0.14721633544826987
          ],
          [
            -0.5597448994741296,
            0.07783160618685454,
            -1.1140129967392887,
            0.7512985547584516,
            1.1977075856870103
          ],
          [
            -0.24170755873551886,
            0.4667582577458924,
            -1.503953264946168,
            0.1451869212334106,
            -0.16085342086629445
          ],
          [
            0.6091784742816625,
            -1.3521481834576017,
            -0.6676468201857138,
            -1.5739280395511868,
            -0.1564631103606256
          ],
          [
            -0.18021834549921734,
            0.651828932950744,
            0.7888936425255008,
            0.4965075609204437,
            0.2511369767433398
          ],
          [
            0.21519350061672357,
            -0.8878553605365008,
            -0.38225386535897915,
            -1.354116992225758,
            -0.1407695145455895
          ],
          [
            -0.18434987118746915,
            1.0195667569760178,
            -0.9741093208166457,
            -0.04051860177557863,
            0.4829014913634994
          ],
          [
            0.5246061997445115,
            0.8098364696278441,
            0.04261840402555618,
            0.162639197796717,
            0.820175539758617
          ],
          [
            -0.7859737460642467,
            0.8014521724153866,
            0.1566325383923895,
            -0.8528053926974897,
            0.46840531957081916
          ],
          [
            0.761250323347214,
            -0.5672678811378902,
            0.37817987910493944,
            -1.745629164545185,
            -0.3004865853794717
          ],
          [
            0.016658225719139774,
            -0.7669466426031172,
            0.497201467451939,
            0.12253331955253609,
            0.04969283734726408
          ],
          [
            0.34223034361592586,
            0.8397602704672428,
            0.37908250667606086,
            -0.5805667589240561,
            1.0841927926490098
          ],
          [
            0.7864212806354356,
            -0.05165707909188108,
            -0.41064257075145716,
            -0.06564549627416287,
            -0.3738174371757498
          ],
          [
            0.5175683377449168,
            -0.6427020466954079,
            -0.05860626620243595,
            -0.9046742699137109,
            0.05918515583332362
          ],
          [
            0.8570065688455013,
            0.8079252726805585,
            0.6846024540388661,
            0.4694425775655503,
            0.7102056715759792
          ],
          [
            -0.4087431842915447,
            -0.824658357645358,
            0.3047995648110128,
            0.5122329687264826,
            -0.5731189260693963
          ],
          [
            0.24489217083040557,
            -0.4710162926741737,
            0.17542348533784724,
            1.3530862841309625,
            -0.01591275396766774
          ],
          [
            1.2398641326416815,
            -1.174438653596742,
            0.289419119732153,
            -0.6363178332042322,
            -1.2341892289552667
          ],
          [
            0.1702468829390645,
            -0.7671712144304027,
            1.0590654745005372,
            -0.03310275903395019,
            0.4850811284832096
          ],
          [
            0.26106970286899833,
            -0.9142317491516241,
            0.6302130953046219,
            -1.796498875408091,
            -0.6421901405050693
          ],
          [
            -1.1723185986141627,
            0.39912257030654275,
            -0.5412543215604838,
            -0.2777754043032813,
            -0.4889901293933671
          ]
        ],
        "biases": [
          -0.18269114293937927,
          -0.07310036092727182,
          -0.23499934561874278,
          -0.3384175113725971,
          0.07204079942006895,
          -0.12109907079354575,
          -0.19262271532504888,
          0.03260309582095086,
          -0.19792853213703168,
          -0.08977688938340714,
          -0.5050445584311831,
          -0.00418625122850741,
          -0.28584213250827206,
          0.2724966277914675,
          -0.33870078490372574,
          -0.22780226760123498,
          0.15426590898089615,
          -0.07633918849007494,
          0.14688397588017063,
          -0.3411859926399797,
          -0.4288266040897777,
          -0.1014152758304974,
          -0.4769424283867696,
          0.07353372249772308,
          0.16106392968915492,
          -0.3828256439616695,
          -0.016866267017797365,
          0.08309464746797074,
          -0.38681509266341046,
          -0.027399413161006192,
          0.08352090044071162,
          -0.04241802704409548
        ]
      },
      {
        "weights": [
          [
            0.3393908352230317,
            -0.29906687432403095,
            -0.5538331467491863,
            0.2553591288633451,
            0.3546392704265613,
            -0.05219809924845372,
            -0.5417688670609397,
            0.2952729940773072,
            0.4820611976775726,
            0.3425602324573918,
            -0.06906180995682938,
            -0.10320786406948343,
            -0.2630093578396975,
            -0.719224046653871,
            0.23488455146646314,
            0.8946464198427978,
            -0.13599443440790535,
            0.19776050127163966,
            0.35431258797642623,
            0.5760463039486161,
            -0.12158258035415506,
            -0.5424947386317558,
            0.4753164898858034,
            -2.051282845342621,
            0.3659147507145108,
            -0.48988734706993725,
            -0.18155997344373026,
            0.04098109824589314,
            -1.526689225061665,
            -0.13243470741361485,
            -1.014113645379971,
            0.6545160540559425
          ],
          [
            -0.7324464762637858,
            -0.20115146853861116,
            -0.31444288190413705,
            0.7157515397546418,
            -0.5234361507709603,
            0.38051041136650543,
            0.20553058906890562,
            0.43639722489990285,
            -0.7138412395324714,
            0.21458493848852384,
            0.4370932906174663,
            0.47456641767088237,
            -0.6710914599885303,
            0.3964512174343904,
            0.9573032098314853,
            0.051865739293157326,
            0.15897479139001902,
            -0.6284253873119722,
            -0.3167410752035236,
            -0.47047341642342455,
            -0.606360881563405,
            0.24451637351435254,
            0.06526792507744153,
            0.40046847199187824,
            -0.6597154842238474,
            1.0105287128110232,
            0.6152897967829181,
            -0.11500330022022222,
            0.6006544498532804,
            -0.5708176816580164,
            -0.4447447050520895,
            0.08744437123783308
          ],
          [
            -0.15366075544923347,
            0.22706594281807033,
            0.420386493591691,
            -0.7787049799116145,
            0.023731395615660192,
            0.45391831295135643,
            0.2834141507176298,
            0.060844205305482534,
            0.12434245470358944,
            -0.34480853537403156,
            -0.15953392018168083,
            0.5769462201849932,
            0.04720489647662912,
            0.34290296449835467,
            0.25374925659581193,
            -0.06014701297278478,
            0.05964656830553449,
            0.5386308640644174,
            -0.7985039452668544,
            -1.1674888412133402,
            0.8369206707250435,
            0.37086053777232914,
            -1.0653806896435694,
            0.018870843917934334,
            -0.31379340947806716,
            -0.054473338858930506,
            -0.32593646334138276,
            -0.3131032452104029,
            -0.03927240584241033,
            -0.7745456114677294,
            0.5344537407632348,
            0.19096745155237696
          ],
          [
            -0.6149207014947828,
            -0.19079943379693573,
            0.2351169627252213,
            -0.45183512975474366,
            -0.040888742296103016,
            -0.18248125696775447,
            0.4342453010375803,
            -0.19583473227437623,
            -0.15488662974670378,
            -0.023214623098152372,
            -0.3001928955839435,
            -0.01361882512394422,
            0.1602882275665257,
            0.16238659321831714,
            0.7269048950555411,
            0.7596247071881866,
            0.6456959298340303,
            0.7317844384124145,
            -1.4005242862945855,
            0.18546200130290352,
            0.0715591439650111,
            0.114414790343224,
            -1.4163871032259308,
            0.013161373097069542,
            -0.3934548287402572,
            -0.27924405587353085,
            -0.2416015069365059,
            0.676359315799655,
            0.8320822525975508,
            -0.7454973519816968,
            0.5167683698770401,
            -0.7982631692162799
          ],
          [
            0.32804921419165023,
            -1.0379615596407912,
            -0.058395304040498114,
            0.36866077475277503,
            -1.031190649926051,
            0.24421668171741526,
            0.3723104442242994,
            0.029056051504430726,
            -0.18999655215288805,
            0.15350721745524298,
            0.1059108028675373,
            -0.30778264531120786,
            -0.5900889655341868,
            0.1860924486754261,
            -0.17048979345635507,
            -0.6025862354019536,
            0.12207532168846214,
            0.5815743171995987,
            -1.0524237088644222,
            0.3800392561387313,
            0.5042134472876274,
            -0.44423542713820596,
            -0.923419621474919,
            0.23189610857581114,
            0.7620387901269876,
            0.04414725066393346,
            0.1405281890759009,
            -0.5931652993570858,
            -0.44472695210871677,
            0.4184483542036498,
            0.3904461086160119,
            -0.02728902484353468
          ],
          [
            0.0958093239304114,
            0.10388653751044973,
            -0.3414067170377214,
            0.48888661119670335,
            -0.3195235620317195,
            -0.16704013371097515,
            -0.9967102352055572,
            0.04556438558381385,
            -1.2391651827780474,
            -3.1131304378713187,
            0.14219925171949188,
            -2.654556814864482,
            -0.5170510876052984,
            -0.3576714219128824,
            -0.1736262358113006,
            -0.6065034074019184,
            0.7010871339444708,
            0.25224853688319543,
            0.1049254549404426,
            0.2958077434941864,
            0.23797858917801637,
            2.3862039332623963,
            0.07313135097960631,
            -0.15617425355310177,
            0.2710250004348935,
            0.12688942723833066,
            -0.31072102010782987,
            0.7841179737220478,
            -0.4074080426759508,
            -1.3769672993733855,
            0.2740592818554102,
            -0.6962463086188887
          ],
          [
            0.6579740603039931,
            -0.16413171087780182,
            0.18826438961273062,
            -0.4897162665719393,
            -0.10477674776720056,
            0.5520721089578462,
            -0.3974774852811573,
            0.36755867193455616,
            -0.8611862339086436,
            1.0431553814782124,
            0.22197705509178328,
            -0.7542634072094424,
            -0.8460143051919323,
            -3.043452979873678,
            -5.877337152344041,
            0.21407970034237914,
            0.1325982315706595,
            -0.9303576422102506,
            -0.2281576777239875,
            0.653076393307495,
            -0.7095792523216046,
            -0.07002894794432254,
            0.022402893123375303,
            -0.1682990155823687,
            -0.38815319444639984,
            0.07989640534713123,
            0.035892654980138834,
            0.008671369087076318,
            -0.6272170058832969,
            0.25491199107430246,
            0.16412009096559826,
            -0.22247135447665012
          ],
          [
            -0.44122789164035636,
            0.5427039315995387,
            0.2283608571456451,
            0.25448260088629715,
            -0.015844670246669627,
            0.7776595408443515,
            -0.7895531420167571,
            -0.3580299195708816,
            -0.6158254862982463,
            -0.000661899852122304,
            -0.4361267441382277,
            -0.9326803903707892,
            -1.163941389458931,
            0.20811224768856929,
            0.665559531812148,
            0.30968784883912565,
            -0.09724043623372068,
            0.05051782487725329,
            -0.037576125015391565,
            0.1670386685685056,
            0.3849824501375501,
            0.5469141201466393,
            -0.3578634023450771,
            -0.35020036577617897,
            -0.3148046665982313,
            0.33566539564486053,
            0.21505246369126918,
            0.29143982787079536,
            -0.26461816627370655,
            0.4933105311135697,
            -0.7256811238007823,
            -0.21657261416699713
          ],
          [
            0.4529011728078742,
            0.5689906462740069,
            0.7115632758392931,
            0.16754146801874906,
            -0.2550848729471638,
            0.336791965090825,
            -0.4344823314812707,
            0.004814377299379445,
            0.15243097101920955,
            -0.01901866195126774,
            0.08465166255056478,
            0.46032128107846826,
            -0.5331468439838152,
            0.13982722292175293,
            0.0661600761452444,
            0.48712410658467215,
            -0.17724750064032507,
            0.014089244779423695,
            0.7400337725669955,
            -0.012797680893723825,
            -0.027600776562325926,
            -0.09025607493841938,
            -0.3213534324643126,
            -0.3693806916518433,
            0.3028205308438771,
            0.5759332323475296,
            -0.24492139061724005,
            -0.06524276687425143,
            0.35267735666850697,
            0.7153582217665722,
            -0.10069392700779295,
            -0.1506770876665512
          ],
          [
            0.11101107924742729,
            0.07810699707405916,
            0.3050565128926108,
            -0.340340741993597,
            -0.16060834697574272,
            -0.20434996542941944,
            0.572744784647673,
            0.4089011368856495,
            0.34137060020812243,
            0.32302401301081113,
            0.5910579709456815,
            -0.14669861796799924,
            -0.18434659852309376,
            -1.000276641410964,
            0.044339952528336564,
            -0.6083306613541934,
            0.5148255212627237,
            0.7319412020164647,
            -0.3673858021615176,
            0.2358239148451621,
            0.02231392720974276,
            -0.3346865688541128,
            0.3613088808966724,
            0.4845189025799681,
            -0.5277247482511407,
            -0.19049174455521012,
            0.483621162421787,
            0.10337196069655791,
            -0.011776926222823158,
            -0.013171852372601232,
            0.0765305637521278,
            0.5889603539182191
          ],
          [
            -0.3033871056757389,
            0.12347707152168809,
            -0.80817213446372,
            -0.32702117076148673,
            -0.2189991488419929,
            0.16216638715175924,
            -0.11832186785151316,
            0.3814537636592436,
            0.06132410429526159,
            0.31227729949020405,
            0.07795394485152465,
            0.4446191037089825,
            0.10953701805294605,
            0.19811734621583743,
            -0.1323151929209285,
            1.1133896749630563,
            0.4581467827544102,
            0.5260902645252797,
            0.7878048711137112,
            0.16957057896721175,
            -0.8354531048240301,
            0.6069511861546361,
            0.6605786209285154,
            0.5233401599166491,
            -0.3582958307531424,
            0.09226615055525988,
            -0.6389254016394615,
            0.7633123202832616,
            0.02217641018488774,
            -0.26187549737177623,
            -0.30791957422692035,
            -0.9585716556299309
          ],
          [
            0.2305816805445118,
            0.3636586468259632,
            -0.20844108147023832,
            0.34911878593051354,
            0.6106122953865742,
            0.8670840937151805,
            -0.6633496074799239,
            -0.4191393590453336,
            -0.7114450144132298,
            -0.07103956734049134,
            -0.2947656981976006,
            -0.03150490740556932,
            -0.8929065769661224,
            -0.614097022271754,
            -0.26044066852543446,
            0.07935565874370991,
            -0.8162910529042754,
            0.1625089774728925,
            -0.05927161064887048,
            -0.05061400628005068,
            0.23313681055243457,
            0.003734668662941533,
            0.4015976855324091,
            -0.3794919668461752,
            0.077241697334992,
            -0.20205698515871948,
            0.06870001183217159,
            0.15187194268228,
            -0.02121373529062995,
            0.16200797103670553,
            0.7337557815194982,
            -0.19459343730342904
          ],
          [
            0.10171075838571898,
            0.039192754831302856,
            -0.2354581208092745,
            -0.909258637662404,
            0.3420136505645915,
            -0.1953407540561557,
            0.2866976308555702,
            -0.3615043974117505,
            -0.012793565743641216,
            0.3178491326493453,
            0.7064034665713395,
            0.11743210624414699,
            -0.6856342472659338,
            -0.14188124815519218,
            0.022652957937837566,
            0.048269457019138026,
            0.510808406928967,
            -0.298230485212963,
            0.4472147328745146,
            -0.04704258788782407,
            -0.23581754456600715,
            -0.15713347822825582,
            0.26480730521873347,
            0.060452280904268484,
            -0.02075501456572344,
            -0.6771280385550825,
            0.7207724879615073,
            -0.9743884886506248,
            0.7166246076595437,
            0.28164936840849675,
            -0.16853205252176442,
            0.5354739043517035
          ],
          [
            -0.19374527663574953,
            0.12806037521822078,
            0.12687313665166608,
            0.8646244018155977,
            -1.4133091449517377,
            0.3193997279875654,
            0.3400754503063147,
            0.04447628946173685,
            0.03263367683870218,
            0.2251233552648599,
            -0.32745877991127703,
            -0.1402276282755384,
            -0.5093921203484284,
            0.6984108427245254,
            -0.29500802541353915,
            -0.04285173820670593,
            0.7859892643916285,
            -0.681727437160894,
            -0.5695521459196682,
            0.37104838980995103,
            0.6284104402998127,
            0.040254105971504126,
            0.16251607286517236,
            -0.3683603488360774,
            0.09966090069670928,
            -1.2812785257862498,
            -1.3535802440362603,
            -0.24810241249318823,
            0.5595067231038144,
            -0.23343133497353932,
            -0.3593546450502956,
            -0.24641534298683374
          ],
          [
            0.6677838152089397,
            0.10733348734240915,
            -0.03071345428751191,
            0.4547361161662849,
            -0.0012098975455470588,
            0.5768511468995684,
            -0.012847825355901059,
            -0.1458886739766759,
            0.033534292380640394,
            0.2194323706840479,
            -0.10153808869164721,
            0.06555308888027289,
            -0.3730347087047844,
            0.5423564001722643,
            0.4931410555430526,
            0.9580965481269222,
            -0.647058227759148,
            -0.04459901606755546,
            0.10746503230594515,
            -0.22313817875765135,
            -0.3517978127802859,
            0.2123287630231807,
            0.5292231922625286,
            -0.1521310652375019,
            0.47098317951856244,
            0.43244809747259544,
            -0.2914790826477032,
            0.04545673274996208,
            0.6946184737358165,
            0.12342249260815544,
            -0.4883504972753419,
            -0.1643074243556115
          ],
          [
            0.5087652452692342,
            -0.4919280100401653,
            0.24407544691374294,
            0.04155744348041835,
            0.23176114290268934,
            -0.34148715170950583,
            -0.3181725424024985,
            0.2823925992373999,
            -0.544329456534337,
            -0.25855096631676394,
            -0.1347876101183256,
            -1.000619436313578,
            0.868064387394499,
            0.3905506454889327,
            0.41984223829971534,
            0.19563532498278496,
            0.18875308533681895,
            -0.023958857066308466,
            -0.3421475120080628,
            0.4574612287618767,
            -0.28613792304081187,
            -0.41385890079353344,
            -0.3088440888358691,
            0.07384684926054833,
            -0.3150468841964925,
            0.07460937160240044,
            0.5068075164829451,
            -0.05755841082856203,
            1.012327996300644,
            0.309512105969292,
            0.27305698024875075,
            0.16209924546887824
          ]
        ],
        "biases": [
          0.08614660448644722,
          0.025213347580145377,
          0.12633236697082498,
          0.10564509749620735,
          -0.1784376129803982,
          -0.08389526474860602,
          -0.10500974873221684,
          0.028168851541386042,
          0.22703607928530636,
          0.024069915763235025,
          0.2153414886292533,
          0.3443591904810197,
          -0.2224340902869963,
          0.12085185841616522,
          0.28785620503969767,
          -0.03562311743358784
        ]
      },
      {
        "weights": [
          [
            0.20446647283838199,
            0.438754781216202,
            0.35608055428415464,
            -0.3520644117475601,
            0.5948978082748191,
            -0.6374447662528331,
            0.5416785156105483,
            0.626996921677737,
            -0.41001985788131823,
            0.1140339006901589,
            0.3066253673868092,
            -0.5382403367045581,
            0.18802410215646007,
            -0.34801308066717446,
            -0.17397044167770798,
            0.23548943312484785
          ]
        ],
        "biases": [
          -0.3513397093478827
        ]
      }
    ]
  },
  "normalization": {
    "temp_mean": 8.339987464701132,
    "temp_std": 9.268205721154704,
    "power_mean": 146.23266948177982,
    "power_std": 1231.9174020831142
  },
  "hourly_noise_std": [
    220.12746933170735,
    241.08246376233393,
    233.67270895678146,
    286.2807772190854,
    518.884917839345,
    818.8665657225494,
    1022.7354569300458,
    1070.719875311883,
    1005.4068771660063,
    936.1297170411997,
    791.9399209782569,
    693.4906533695496,
    585.1450055247105,
    514.9558929222592,
    446.3322042345212,
    443.02074069790774,
    457.85241735688663,
    424.04383117381747,
    405.0211931694807,
    394.52976212760655,
    334.00769141594554,
    302.37342163101306,
    296.1333381293238,
    259.61420326800635
  ]
}